-0.000076
-0.002696
-0.003669
0.003430
0.008854
0.008872
0.006945
-0.001802
0.000082
0.004342
-0.000749
-0.001730
-0.004884
-0.001950
-0.007851
0.001419
0.009343
-0.005323
-0.004318
0.005225
-0.006867
-0.002223
0.005905
0.005016
0.008702
0.005005
0.014066
-0.003992
0.003973
-0.004236
0.004742
-0.002757
-0.002572
0.007528
-0.012096
-0.003745
-0.002854
-0.003841
-0.001617
0.004250
0.005579
0.011579
-0.001834
-0.004645
0.005204
-0.000912
-0.002010
0.003536
0.017524
-0.001220
-0.000943
-0.006112
-0.007778
0.007630
-0.004760
0.001732
0.006694
-0.001543
0.000390
0.007765
-0.000943
-0.000444
0.002470
0.013527
0.008047
-0.000125
-0.003288
0.001259
-0.001891
-0.004930
0.004004
-0.002304
-0.003905
-0.003853
-0.005121
0.002685
-0.000720
0.006543
-0.002552
-0.002767
0.020544
0.011845
0.004881
0.002757
0.014329
-0.002120
0.010806
0.009801
0.005852
-0.004411
0.008821
0.005197
0.006031
-0.004577
0.002025
-0.001616
-0.006065
-0.000032
0.005040
-0.001321
-0.002959
-0.005552
-0.004200
-0.002473
-0.004700
-0.003230
-0.002154
-0.003928
-0.000008
-0.002948
-0.002054
-0.006696
-0.004557
-0.006669
0.014295
0.005413
-0.000513
0.001650
0.003734
0.005573
