-0.053990
-0.094050
0.027887
-0.037862
-0.013902
0.070850
-0.000305
0.012070
0.065456
0.049703
0.052931
-0.105884
-0.062146
-0.025524
0.025647
0.022926
-0.084366
0.085861
-0.062899
0.037761
0.074332
0.003082
0.093905
0.028172
0.051138
-0.029773
-0.039603
-0.069409
0.017301
-0.043171
-0.089879
0.063697
-0.054923
0.081922
0.105607
-0.092567
-0.148266
-0.004833
0.054682
0.015668
-0.156032
-0.043217
0.032667
0.019250
-0.133604
0.036606
0.082961
0.119958
0.054735
-0.132128
-0.015827
-0.059251
-0.052664
-0.059552
-0.089390
-0.084380
0.045662
0.096671
0.034261
0.080408
0.001017
0.103346
0.098767
-0.099931
-0.068977
0.011317
0.047648
0.041712
0.018364
-0.179901
-0.029586
0.024437
0.026496
-0.051059
-0.140488
-0.037341
0.010148
0.060464
0.099773
-0.042224
-0.091586
-0.022934
0.034097
-0.013881
-0.040860
-0.021767
0.045769
0.002728
-0.011953
-0.101846
0.082482
0.179892
0.043265
-0.085107
-0.108880
0.016906
0.168877
-0.131311
-0.157855
-0.096964
-0.110402
-0.062876
-0.149577
-0.053317
0.004805
-0.077834
-0.168485
0.018852
0.089278
0.054565
-0.136355
-0.098468
0.119168
0.026178
-0.071649
-0.115210
-0.015782
0.065053
0.127861
-0.170376
-0.171506
0.107743
0.027206
-0.088648
-0.154256
-0.083698
-0.057098
0.004936
0.022163
-0.035289
-0.055940
0.036955
0.002221
-0.046593
-0.023062
-0.022837
-0.084656
0.061005
-0.065788
0.026343
-0.035943
0.019547
-0.028794
-0.125087
0.023844
0.083150
-0.068371
0.056578
-0.129234
-0.061145
0.021952
-0.014566
-0.070436
0.000926
0.018546
0.056015
-0.097311
-0.069206
-0.096816
-0.083556
0.018213
-0.080451
-0.144788
-0.017636
-0.136058
-0.122431
-0.010408
-0.055780
-0.124805
0.015522
-0.031595
0.019427
-0.117863
-0.053087
-0.128485
0.013248
-0.065661
0.014164
-0.059467
-0.100254
0.043461
0.074956
-0.051033
-0.141900
-0.020230
-0.045041
0.007198
0.064987
0.075407
-0.032225
0.047351
-0.034528
0.052200
0.091404
-0.006148
0.093493
-0.026796
-0.036865
0.052832
-0.031271
0.003389
-0.062531
-0.063394
-0.020585
0.069222
-0.083244
-0.047497
-0.013010
-0.075974
0.048027
0.074145
0.008365
-0.053614
-0.056268
-0.023781
0.108690
0.189354
0.141661
0.147819
-0.085721
0.076218
0.119247
0.088520
-0.101745
-0.062491
-0.109437
-0.071974
-0.121526
0.023591
0.010323
-0.013991
-0.184369
0.008091
0.074480
0.062804
0.001257
0.030875
-0.063582
-0.034730
0.047290
0.028288
0.103860
0.076387
0.052687
-0.011557
-0.166397
-0.184663
-0.095938
-0.004222
-0.145995
-0.031723
0.009014
0.101366
-0.069006
-0.033799
0.068632
-0.082827
-0.166290
-0.162964
-0.016079
-0.025436
-0.116147
-0.126033
-0.007272
0.144948
0.102117
0.060800
0.094495
0.138737
0.058234
0.057799
0.087959
-0.101556
-0.019664
-0.129682
0.095197
0.058962
-0.032939
-0.018801
0.055265
-0.065848
-0.043643
0.043345
0.005235
0.047726
-0.099791
0.062292
0.104979
0.042420
0.076717
0.165766
0.142333
0.053722
0.082113
-0.057863
-0.038001
0.109176
0.080988
-0.025626
0.089226
-0.131204
-0.086150
-0.037899
0.057021
-0.078307
0.035335
-0.058071
0.025173
-0.105278
0.064694
-0.016736
0.003278
-0.092740
0.049933
0.067450
-0.024447
-0.098382
0.040125
0.001894
0.003181
0.051718
0.013387
0.097312
-0.066319
0.095510
0.035007
0.024079
0.072580
-0.047291
-0.044270
0.022804
-0.116773
-0.094405
-0.113921
0.058601
0.078106
-0.054630
0.059448
0.079320
-0.015334
-0.066905
0.061362
0.044532
0.056891
0.080448
-0.066050
-0.050965
-0.155769
-0.101105
-0.029176
-0.110742
-0.038488
-0.100651
0.020890
-0.132999
0.016520
-0.082255
-0.143191
0.041917
-0.073404
-0.026315
0.128303
0.185279
0.087208
0.188704
0.126710
0.008259
0.105494
-0.053427
-0.016074
-0.099321
-0.211963
-0.196688
-0.072246
-0.069946
0.046358
-0.004000
-0.048512
-0.069244
-0.139396
0.087847
-0.015397
0.076627
-0.112359
-0.009554
-0.015688
0.080126
0.086775
0.129934
0.040491
-0.018120
-0.018500
-0.162544
0.019939
0.045623
-0.233713
-0.090541
-0.185316
0.048806
-0.020802
-0.014944
0.002039
-0.010473
0.003109
-0.074944
-0.013569
0.048380
-0.136359
-0.018251
-0.098921
-0.024860
-0.016028
0.079805
0.138227
0.105139
0.108167
-0.008586
0.143778
0.030090
0.011158
-0.027818
-0.034992
-0.152659
-0.183202
0.036815
-0.053030
-0.016468
-0.120162
0.029354
0.006912
-0.044497
-0.050345
-0.038086
-0.013587
-0.096069
0.119689
0.164117
0.167888
0.152017
0.189354
0.145129
0.021302
0.088127
-0.049082
0.002773
-0.031071
-0.130931
-0.108344
-0.075924
-0.106926
-0.029304
0.097927
0.084840
-0.020432
-0.025087
-0.054575
-0.057361
0.070875
-0.074321
0.062160
0.022910
0.046386
-0.097021
0.022970
-0.084847
0.009337
-0.052679
-0.010635
0.016706
-0.097608
0.129508
0.045977
-0.019837
-0.057083
-0.089150
-0.091245
-0.083411
0.045755
-0.019139
0.011061
-0.020822
-0.046712
-0.047836
-0.042426
-0.070937
0.066027
0.053646
-0.064851
0.095086
-0.070638
-0.094553
-0.048077
0.003848
-0.086977
0.037990
-0.110048
0.003795
-0.062302
-0.103732
-0.098095
0.006590
0.042158
0.008129
0.027932
-0.054631
-0.040993
-0.064140
0.148125
0.136598
0.084510
0.099548
-0.025523
0.110527
0.184351
0.097733
-0.134711
-0.154864
-0.134225
0.059090
0.179611
-0.040108
-0.109839
-0.026620
-0.080589
-0.075089
-0.007702
0.003385
0.075911
-0.048179
-0.038021
0.132535
0.028110
0.062789
0.156731
-0.026065
0.033456
0.019889
-0.045261
0.191287
0.125543
-0.148762
-0.158275
-0.145354
0.021161
0.083974
-0.039832
-0.093932
-0.191966
-0.149606
-0.050160
-0.021797
0.027251
-0.023810
0.040047
0.078747
0.061797
-0.046567
-0.073949
-0.110465
0.095683
-0.037544
-0.022276
-0.022449
0.072202
-0.002621
-0.061523
-0.098495
0.024123
0.057403
-0.090314
-0.110806
-0.148157
-0.055543
-0.109438
-0.060092
0.080486
-0.106120
-0.030985
-0.065574
0.034450
-0.070674
0.115565
-0.031212
0.039553
0.014821
0.061775
-0.058026
0.011001
0.040321
0.039235
-0.001801
0.006576
-0.090471
0.026364
0.169035
0.045715
-0.053499
0.037930
-0.041453
-0.038049
-0.066460
-0.007568
0.024499
-0.078354
0.023054
-0.072655
-0.037783
-0.009018
-0.091573
0.023190
0.047950
0.073871
-0.075841
0.048986
-0.080104
0.100486
-0.008849
-0.055807
-0.047803
0.084815
-0.088942
0.010107
0.068457
0.088846
0.021895
0.068744
0.111699
-0.003592
-0.047554
-0.069380
0.078286
0.014754
-0.066174
-0.039572
0.009216
0.082376
0.039159
0.075532
-0.027080
0.081924
0.022172
-0.082284
-0.050746
0.012197
-0.060878
-0.070372
0.008625
-0.055508
0.095694
-0.046515
0.070367
-0.017815
-0.006482
-0.095290
0.000735
-0.123375
-0.006772
-0.019526
0.065955
0.028818
0.032765
-0.066156
-0.024300
-0.013264
0.060306
0.014269
0.014180
-0.001529
0.030711
0.044166
-0.069028
0.079338
0.088389
-0.121329
-0.092039
0.011614
0.050314
-0.059681
-0.029933
-0.086142
-0.099654
-0.123426
-0.065325
0.068361
0.102195
-0.021442
-0.010886
0.030773
0.003940
0.076832
-0.037796
0.080040
0.092307
-0.097030
-0.064123
-0.020770
0.062502
0.090863
-0.065415
0.002897
0.052591
-0.014083
-0.088018
-0.119093
0.042262
0.016215
-0.105866
-0.050176
-0.027193
0.037319
-0.102445
-0.061108
-0.038159
-0.085975
0.053375
-0.016097
-0.074385
-0.049508
0.135244
-0.082807
-0.043303
0.011129
-0.039289
0.114524
0.037117
0.027716
-0.120610
0.077538
-0.037004
0.068985
0.013644
-0.118847
0.088537
-0.054926
-0.100517
-0.003425
-0.052710
-0.044910
-0.080641
-0.060687
0.017835
-0.088718
0.022667
-0.044773
-0.083817
0.036516
0.066391
0.069840
-0.105095
-0.031078
-0.048928
0.082212
0.017184
-0.111214
-0.012675
0.101574
0.064160
-0.054678
-0.071171
0.019394
-0.058124
0.025158
0.012957
0.020742
0.056572
-0.027384
-0.061920
0.090125
-0.050404
-0.060141
0.008247
-0.103008
-0.069876
-0.050636
-0.063800
-0.071485
-0.073545
-0.047193
0.030321
0.085401
-0.015084
-0.068226
0.046549
0.104063
0.036186
0.045060
-0.095996
0.090522
0.070130
0.029194
0.017253
0.127161
-0.069699
-0.059932
0.074939
-0.081592
0.045062
-0.110608
0.026463
0.100396
-0.029393
0.096470
-0.049549
-0.032505
-0.090241
-0.109421
-0.070585
-0.069558
0.072042
-0.082695
-0.105033
0.063275
0.070585
-0.082266
-0.141035
0.042754
0.002211
0.075490
-0.028512
-0.123510
-0.067739
-0.045859
0.071926
0.078674
0.033622
-0.011378
0.108407
0.072191
-0.039089
-0.006768
-0.043661
0.100514
-0.065944
0.011677
-0.076636
-0.044591
0.112188
-0.002783
-0.144481
-0.156887
0.080729
0.051953
-0.070206
0.053474
-0.075012
-0.124766
-0.016021
-0.041740
-0.057630
0.072653
-0.053652
-0.068862
0.057495
0.086247
0.015008
-0.148186
0.000055
0.031584
0.014487
-0.090491
-0.012448
0.099741
0.088079
0.011503
-0.027496
0.063708
-0.017926
0.076232
-0.074343
-0.127374
0.005968
0.051244
-0.050974
0.083747
0.022194
-0.092983
-0.056166
-0.046832
0.047499
0.090670
-0.089020
-0.081918
0.055081
-0.034292
-0.029828
0.105701
0.101188
0.050234
0.029589
-0.104031
0.096563
-0.000631
-0.048244
0.038766
-0.072243
-0.051419
0.114565
0.012494
0.115044
-0.056298
-0.069511
-0.015182
0.005383
-0.020524
0.068876
0.019733
0.047722
0.087324
-0.006299
0.097009
-0.013768
0.102761
-0.039974
-0.045483
0.090966
0.014802
0.085792
-0.024436
0.039794
-0.040762
-0.059407
-0.027531
0.041295
-0.050903
-0.074775
-0.019795
0.035248
0.008932
0.019969
0.085249
-0.039819
-0.005134
0.014846
-0.047229
0.089460
-0.095310
-0.091700
-0.061362
-0.001382
0.041665
0.059537
0.100159
0.056251
-0.074337
-0.063376
0.060665
-0.025745
0.044480
0.031789
-0.004272
-0.017135
0.049477
-0.083277
-0.091790
-0.028386
-0.099980
-0.081252
0.004774
0.061171
-0.084699
-0.051741
0.061258
-0.060232
0.099291
-0.083770
-0.042920
-0.022241
0.051521
-0.025213
0.022977
-0.104594
0.040548
-0.008268
-0.044849
-0.031402
0.078992
-0.069355
-0.089413
-0.064244
-0.032145
0.038140
-0.038866
-0.059412
-0.013107
0.001255
0.002074
0.057254
0.059146
-0.063488
0.008365
-0.013215
0.024118
-0.006759
0.011035
-0.015949
-0.004587
-0.059294
0.024177
-0.082284
0.088799
-0.025415
0.055238
-0.024874
0.100782
-0.054114
-0.012263
-0.016082
-0.040645
-0.084289
-0.059313
-0.048594
-0.030626
-0.065158
-0.013958
0.087979
-0.100532
-0.048379
-0.047447
0.092019
0.111631
0.059712
-0.102694
0.063783
-0.037968
0.046571
-0.099622
-0.075857
0.050688
0.045237
0.045895
-0.001165
-0.056532
-0.003863
-0.101153
0.076546
-0.099180
0.086706
-0.039354
-0.035923
0.000462
-0.067686
0.018849
0.086599
0.038190
0.025041
0.065356
0.016949
0.085878
0.096169
0.091380
0.081225
-0.071874
-0.063486
-0.088767
0.063647
-0.000579
-0.014053
-0.066874
0.073773
0.036243
-0.038588
0.009213
-0.109985
-0.070918
0.047161
-0.103552
-0.115707
-0.017814
-0.043904
0.040424
-0.025787
0.058331
-0.009321
0.025563
0.013864
0.045709
0.012687
0.042497
-0.073542
0.097897
0.004047
-0.023883
0.044841
0.047396
0.069586
-0.096372
0.009450
-0.024656
-0.125388
-0.079970
-0.006366
0.030347
0.059895
0.042300
-0.105157
0.038133
-0.089987
-0.097392
0.015880
-0.065069
-0.106790
-0.145436
0.003042
-0.087137
-0.096594
0.017021
-0.011196
-0.110619
-0.113731
-0.087511
-0.092136
0.088911
0.076735
-0.124806
-0.073482
0.052253
0.065474
0.096006
0.107853
0.062114
-0.007743
-0.008235
0.112145
0.158333
0.047633
-0.007379
-0.099302
0.084627
-0.077775
0.023938
-0.110958
-0.112466
-0.097817
-0.064807
0.032509
-0.014399
0.110649
0.069020
-0.143608
-0.167648
-0.086342
0.115285
-0.020758
0.044842
-0.016288
-0.031908
0.067725
0.146337
-0.017006
0.022223
-0.032312
-0.061710
-0.126298
0.050103
0.039790
-0.046397
0.058735
-0.055521
0.021142
-0.072554
-0.014478
0.005601
-0.025186
-0.129109
-0.140082
0.117665
0.109107
-0.033049
-0.149505
-0.008878
0.045541
0.038897
0.068699
-0.006450
0.041472
0.006514
0.065240
-0.014494
0.064810
-0.089738
0.018283
0.069034
-0.052683
-0.105998
0.039061
0.038309
-0.007123
-0.089955
0.006210
-0.093698
0.064154
0.013748
0.080782
-0.045460
0.000203
0.043548
0.064922
0.065087
0.002810
-0.054342
-0.031926
0.040955
-0.023179
0.063919
0.079112
-0.027032
0.001046
-0.053665
-0.048007
0.019873
0.002983
-0.056339
0.109674
-0.026517
0.099096
0.035414
0.127227
0.017582
-0.034187
-0.051750
0.093098
0.070510
0.075900
-0.105321
-0.081162
-0.080297
0.091725
-0.011942
-0.016386
-0.022754
-0.074596
0.067711
-0.077627
0.040746
-0.087265
0.096143
0.015747
0.035082
-0.095321
-0.060657
0.059669
0.008201
-0.124245
0.073649
0.049083
-0.024515
-0.082990
-0.101898
0.035077
0.146097
0.031923
-0.026876
0.025068
-0.052389
0.171885
-0.062142
-0.036181
-0.094802
-0.029827
-0.092438
-0.053011
-0.092333
-0.139287
-0.059950
-0.005696
-0.027530
-0.023235
-0.143709
-0.093094
-0.108018
-0.039114
-0.058308
0.020796
-0.062582
0.007757
0.095555
-0.069669
0.093418
0.021768
0.067259
0.061618
0.076823
-0.130226
-0.165313
0.065897
0.009656
-0.150712
-0.067876
-0.079856
0.071233
-0.066225
-0.033859
0.087484
0.057488
0.006692
-0.161517
0.040770
-0.016589
0.092711
-0.019128
-0.027275
0.082193
0.009404
0.123256
0.038137
-0.015591
0.127547
-0.072807
0.099791
0.041112
0.062717
0.033255
-0.030648
-0.003925
-0.097750
-0.068497
0.016597
0.014143
-0.094404
-0.043922
0.070165
-0.127088
0.034569
-0.030278
0.170480
-0.018480
0.000605
-0.008499
0.068642
0.147752
-0.017044
0.033921
-0.091682
-0.062934
-0.063008
-0.043756
-0.052047
-0.103988
0.016387
0.067825
-0.039247
-0.011547
-0.075039
-0.037090
-0.062027
-0.103450
-0.074604
-0.027705
0.107752
-0.036155
-0.079012
0.101453
-0.045403
0.086021
-0.029363
-0.020313
0.060070
0.034642
-0.028818
-0.001650
-0.038724
-0.077780
0.066405
0.107318
-0.041371
-0.023682
0.084834
0.092093
0.081898
0.100968
0.093469
0.104530
0.019236
0.099025
0.027378
0.034215
0.128141
-0.000871
0.023303
0.031482
0.114744
0.038707
0.071120
0.032451
0.031337
0.035371
-0.111190
-0.104315
0.062593
0.038566
0.000531
0.063346
-0.047991
-0.102694
-0.006781
0.052814
-0.070140
-0.082685
-0.011342
-0.091239
-0.006957
-0.052240
-0.086502
-0.059325
0.001403
0.002107
-0.100296
0.056672
-0.106122
-0.097053
-0.005009
-0.061151
0.022154
-0.044003
-0.021328
0.041474
-0.105769
-0.000691
-0.107240
-0.047451
0.027492
0.006435
0.042714
0.000592
0.037055
-0.058741
-0.019806
-0.053880
-0.038436
-0.069179
0.033814
0.046759
-0.028558
0.030880
-0.053124
0.039620
-0.053266
-0.068013
-0.077491
-0.011798
-0.043131
0.088501
0.012263
0.080124
0.065570
-0.105687
-0.086551
-0.015416
-0.078564
0.047456
-0.030819
-0.043096
-0.073787
0.002706
0.089160
0.092541
0.060414
-0.079297
-0.106050
0.056686
0.022061
-0.120061
-0.059844
0.087163
0.001930
-0.092065
-0.038367
-0.045038
-0.031400
-0.078992
0.053616
-0.073976
-0.086302
0.070666
-0.012362
0.028860
0.036837
-0.084708
-0.018214
0.037436
-0.007828
-0.103816
0.011270
0.097977
-0.009284
0.008891
-0.008203
0.082184
0.084969
0.047095
-0.064910
-0.016411
-0.033723
-0.038110
0.077399
-0.035755
-0.085109
-0.064068
-0.027085
-0.027155
0.012026
-0.020491
-0.009455
-0.055471
-0.038855
0.091433
0.034994
0.033477
0.067734
-0.107460
-0.021109
0.007761
0.121037
0.001075
-0.002703
-0.071093
-0.041505
0.025279
-0.007398
0.054397
-0.048072
-0.025022
0.037292
0.079757
0.040476
-0.014809
-0.035421
0.112718
-0.020695
0.141317
-0.012616
-0.010145
0.067097
-0.088464
0.059411
-0.004853
0.018780
-0.145976
-0.116737
0.018402
-0.019467
0.104456
0.044560
0.063828
0.011823
-0.100787
-0.019714
-0.088935
-0.012477
-0.015981
-0.045807
0.073737
0.095353
0.166265
-0.007844
0.014294
-0.124291
-0.002216
-0.063985
-0.065875
-0.016562
-0.015399
-0.050558
-0.128447
-0.156010
0.122624
-0.079189
-0.122118
-0.052542
-0.007408
-0.061390
0.085561
0.038219
0.089194
0.066927
0.077486
-0.099982
-0.005686
0.117284
0.112494
-0.115368
-0.026185
0.005989
-0.094780
-0.080574
0.051006
-0.064211
-0.143723
-0.130414
-0.033506
0.034122
0.001934
-0.048191
-0.002986
-0.062479
0.050409
0.102740
-0.066107
0.067699
-0.018154
0.075715
-0.064604
0.047061
0.111993
0.124133
-0.076038
0.093236
-0.020561
0.012961
0.115526
-0.065826
-0.040442
-0.030444
-0.083379
-0.100603
0.009571
-0.082697
0.052205
-0.024968
-0.087173
0.070937
-0.002443
0.093628
0.061249
-0.003132
0.087832
0.115058
-0.007358
0.059527
0.075659
0.002108
-0.064428
-0.081411
0.114696
0.033210
-0.066364
-0.098665
-0.074973
-0.115538
-0.071033
-0.040571
-0.066486
-0.030945
-0.018897
0.088992
0.074732
-0.058799
-0.093997
0.008791
-0.071396
0.066693
-0.074867
-0.077344
-0.047425
-0.048323
-0.084157
0.010960
0.002628
-0.032570
-0.004756
-0.002530
-0.031986
-0.042096
-0.097312
0.042553
-0.026303
-0.074324
-0.019463
-0.048955
-0.050784
0.054866
0.019045
0.024578
0.009149
-0.007751
0.092601
-0.087911
-0.086410
-0.035388
0.037545
-0.088295
0.061798
-0.038480
-0.086424
0.042854
0.106540
-0.056528
-0.068287
-0.035074
0.090897
-0.010035
0.021609
0.007877
-0.063135
-0.035036
-0.041866
-0.008072
0.058573
-0.005446
-0.001959
-0.058012
-0.067498
0.011771
-0.057798
-0.015887
-0.054787
0.010868
-0.096072
-0.010816
0.035750
0.007113
0.040888
-0.087531
0.045508
0.017760
0.007548
-0.074136
-0.093005
0.000807
-0.068341
0.022758
0.062636
-0.040565
-0.033024
0.060005
-0.089967
0.092350
-0.052798
0.009959
0.093274
0.027374
0.046420
0.005128
-0.008565
0.090594
0.027848
-0.059807
-0.073607
0.058419
0.026619
-0.042401
-0.007810
0.065041
-0.024415
-0.023398
-0.055137
-0.017472
0.072935
-0.027686
0.087978
-0.034492
-0.082702
-0.072067
-0.081844
-0.076950
0.072766
0.061479
-0.072530
-0.001971
-0.036570
0.098126
0.055041
-0.103365
0.074271
-0.009206
0.101198
-0.097857
0.000613
-0.057761
0.075596
0.001518
-0.101806
0.041728
0.047222
-0.032608
0.003068
0.058156
0.073798
0.054106
0.084169
0.011976
-0.069230
-0.061072
-0.057158
-0.042456
-0.074710
0.027563
0.074504
-0.042243
0.029116
0.083234
0.095688
-0.083466
-0.080407
-0.085678
-0.055412
0.051363
-0.083445
-0.010305
-0.089218
0.069321
-0.077433
-0.043720
-0.025281
0.065327
0.020880
0.058194
-0.099130
0.026779
0.006275
0.090224
-0.053080
0.053518
-0.125692
-0.033326
0.056169
0.025780
-0.033300
0.019039
0.046819
0.041909
-0.034425
-0.078292
-0.098427
0.078337
-0.090306
-0.011136
0.014851
-0.065313
-0.068500
0.063775
-0.065118
0.057433
0.075450
-0.011198
0.083690
-0.105636
-0.100247
0.131201
0.053319
-0.008144
-0.017717
-0.008244
0.100710
0.065753
0.003780
-0.134214
-0.008168
0.151493
0.059695
-0.019443
0.086370
0.125284
0.057793
0.046870
-0.119742
0.120120
0.106611
-0.047985
-0.029321
-0.093352
-0.022275
0.043133
-0.097717
0.035764
-0.139450
0.061388
0.008810
-0.082123
0.031557
0.023456
-0.010003
-0.065625
0.005729
-0.129258
0.002895
-0.036298
-0.003589
-0.067219
-0.064218
-0.065997
0.110543
0.063578
-0.006715
-0.154413
-0.149962
0.105553
0.190481
-0.030244
-0.061328
-0.063265
0.176929
0.015481
0.009443
-0.175740
-0.114447
0.164790
0.154908
-0.072187
-0.114221
-0.035911
0.014265
-0.113277
-0.009559
0.035136
-0.063809
0.042866
0.022786
0.032382
-0.008326
0.040007
-0.089274
-0.149145
0.017421
0.062944
0.070887
-0.128744
-0.009593
0.172953
0.077247
-0.060520
-0.115571
-0.053397
0.136294
-0.074043
-0.039972
-0.018287
0.053257
-0.108440
-0.006962
-0.044137
0.073914
0.031390
0.033197
0.033270
-0.010299
0.121342
0.001280
-0.079693
-0.029196
-0.084802
-0.092616
-0.052257
-0.078700
-0.026965
0.026139
0.008527
-0.001267
-0.141039
-0.001353
0.011306
-0.012219
-0.092771
-0.059084
0.042335
-0.045543
-0.018950
-0.123089
-0.060379
-0.075658
0.014691
-0.030276
0.040247
-0.068345
-0.055461
0.021379
0.050449
-0.033621
-0.108521
-0.054588
-0.067838
0.058222
-0.108286
0.029876
-0.008261
-0.000732
-0.099928
0.048968
-0.101530
-0.085271
-0.097320
-0.093365
0.090964
-0.044200
0.053215
0.017471
0.003733
0.058832
-0.126129
0.048252
-0.069956
-0.003708
0.072060
0.048257
0.003933
0.040799
-0.056691
0.083160
0.093523
0.021275
0.106317
-0.009592
-0.061057
-0.067347
-0.026347
0.082611
-0.050301
-0.058846
0.028206
0.011563
0.028931
0.049227
-0.062965
-0.043892
-0.082161
0.019024
-0.052742
0.130890
0.046361
-0.100613
-0.038932
-0.064567
0.146954
0.093927
0.068686
0.084515
0.020298
-0.065361
-0.006400
0.000729
0.110465
-0.020573
-0.142973
-0.110069
-0.110003
-0.030354
0.042697
-0.069623
0.016668
-0.151094
0.100731
-0.028177
0.040877
-0.054297
0.084885
0.039162
0.031454
0.027570
-0.021011
-0.026078
-0.058914
0.059572
0.033495
-0.048999
0.002540
0.052054
0.045723
0.043138
0.028234
0.066173
-0.102468
-0.072396
0.030457
-0.079296
0.016260
-0.022260
0.029987
0.041777
-0.142824
-0.058512
0.040952
-0.028125
0.080228
-0.073428
-0.028081
-0.055104
-0.012225
0.073928
-0.004111
0.055343
0.042216
-0.082728
-0.105060
-0.052387
-0.017864
-0.048771
-0.064746
-0.137618
0.053930
0.051644
0.084284
0.106385
0.071918
-0.003190
0.042300
0.039575
0.007706
0.114590
0.041071
-0.000137
-0.053403
0.028756
-0.052254
-0.009822
0.007089
-0.065067
0.042936
0.056621
0.066367
0.052436
0.014104
-0.079716
-0.024844
0.003591
-0.052350
-0.081153
-0.047726
-0.004170
-0.049369
-0.109361
-0.078947
-0.014532
-0.064761
-0.026728
0.095360
-0.061963
0.017525
-0.075463
-0.035603
0.048207
0.002492
0.053147
-0.094657
0.056547
0.022544
0.076699
0.021883
0.005687
-0.085861
-0.069520
0.058200
0.068140
0.002233
0.060037
-0.051837
-0.086648
-0.067525
-0.028780
-0.007379
0.079028
-0.021898
0.075178
0.056900
-0.009253
0.129474
0.059647
-0.023472
-0.112434
0.168704
0.087039
0.089521
0.036869
-0.055737
0.101088
0.020078
-0.093145
0.005962
-0.085047
0.026287
-0.018418
-0.099787
-0.066398
0.008534
-0.024127
0.026023
0.105218
-0.001298
0.039008
0.154282
0.058500
0.043615
-0.096738
-0.082682
0.018344
0.113432
0.092994
-0.094373
0.033070
0.064893
0.160881
-0.128423
-0.101726
-0.005399
0.004893
-0.050684
0.019422
0.111874
0.111348
-0.053565
-0.025379
-0.050297
-0.068079
0.041877
-0.055432
-0.028300
-0.043588
-0.076924
0.014697
-0.050922
-0.117725
-0.022752
-0.009406
-0.052455
0.040096
-0.064486
0.107968
-0.054513
-0.085911
-0.120022
-0.020814
-0.009376
-0.090280
-0.075079
0.005790
-0.026411
-0.050942
-0.071590
-0.039899
0.065822
-0.076115
-0.088568
0.076386
-0.035340
0.133308
-0.097577
-0.019818
0.029217
0.038615
0.091863
-0.033045
0.019950
-0.118356
-0.097896
-0.010617
0.081976
-0.025844
-0.078181
0.042908
-0.077629
0.007282
0.013519
-0.039970
0.004571
0.068296
-0.056345
0.075464
-0.104248
0.069546
-0.048969
-0.033854
0.075991
-0.036273
-0.023795
0.084902
0.054506
0.055720
-0.036719
0.001922
-0.039629
0.031257
0.004247
-0.008326
-0.090799
-0.004531
0.060562
-0.021922
-0.077234
-0.073131
0.045921
0.002819
-0.093160
-0.099246
0.072837
0.059175
0.043725
-0.049012
-0.065452
0.067193
-0.017593
0.062565
0.050004
-0.016483
-0.020643
-0.111306
-0.070050
-0.018761
0.040968
-0.004056
-0.013152
0.007418
0.006927
0.117194
0.026040
0.013319
0.093421
-0.034831
0.074722
-0.102479
-0.077973
-0.050100
-0.038207
-0.089908
-0.001044
-0.120972
0.061899
-0.082457
0.019868
-0.028458
0.063127
0.012060
-0.061973
0.016631
-0.026672
-0.068986
0.002942
0.029706
-0.005417
0.113572
0.019335
-0.054340
0.043779
-0.097942
-0.109647
-0.128870
-0.082664
-0.125968
0.001918
-0.138665
-0.007351
0.131944
0.044272
-0.130721
-0.062462
-0.000446
0.111139
-0.112004
0.055595
0.002000
0.029696
0.073979
-0.089900
-0.070806
0.144448
0.111752
0.070284
-0.085031
0.015939
-0.018072
0.001657
-0.104901
-0.051449
0.071433
-0.041649
-0.127008
-0.060522
0.077629
-0.023968
-0.117690
0.024131
-0.018290
-0.044045
-0.074582
0.009764
0.012552
0.019733
-0.078698
0.083295
-0.063339
0.050082
0.023392
0.076213
-0.019604
-0.050200
0.015006
-0.103046
-0.058773
0.067283
-0.077480
-0.075337
0.058775
0.088958
-0.086374
0.056355
0.066524
0.068851
0.080503
-0.011052
-0.049663
0.006197
0.051893
