-0.091418
-0.037789
-0.192870
-0.213365
-0.131402
-0.005951
-0.042153
-0.005892
-0.183262
-0.076190
-0.071790
-0.202782
0.022604
-0.194309
-0.210293
0.161407
-0.174081
0.006245
-0.079931
-0.063169
-0.019739
-0.199574
-0.149816
-0.005214
-0.067082
-0.049734
0.225477
0.001268
0.009886
-0.072109
0.351955
0.192877
-0.026301
0.153993
-0.168381
0.308405
-0.046470
0.098044
-0.091873
-0.084849
0.167085
-0.017606
0.086151
0.021588
0.000848
-0.116007
-0.068011
-0.257076
-0.004186
-0.172995
0.138876
-0.073854
0.094666
-0.050390
0.008715
0.226799
0.056481
0.325838
0.346279
0.205584
0.195071
0.095767
0.261501
0.188027
0.006766
0.073169
-0.170463
-0.103098
0.202078
0.162134
-0.095536
-0.230569
0.071728
0.104951
0.182913
-0.247469
0.062933
0.009022
0.206318
0.103914
-0.012801
-0.055332
0.168113
0.293942
0.078643
0.142459
0.139338
0.008774
0.267656
0.231069
-0.239899
0.044755
0.272369
0.141410
0.344743
0.058749
-0.163472
0.146752
0.101001
0.171263
0.161673
0.068917
0.223588
0.221159
0.120153
0.030578
0.305229
0.026051
0.087126
0.193986
0.368335
0.257914
0.080229
-0.034971
-0.149253
0.097155
0.179349
-0.153533
-0.149468
0.021563
-0.029258
-0.087090
-0.142928
-0.269192
0.048623
-0.156187
-0.020149
-0.060007
-0.053920
-0.011550
0.196892
-0.004913
0.179115
0.154801
0.279613
0.036089
0.029812
0.161325
0.274690
0.149060
-0.083629
0.180819
-0.067286
-0.191547
0.150513
0.022632
-0.293274
-0.090041
-0.274134
0.014842
