-0.201707
0.165085
-0.141316
0.107135
-0.065779
-0.152095
-0.236307
0.094121
-0.244958
-0.232638
0.103039
0.143112
-0.001536
-0.182568
0.093823
0.288820
-0.127360
-0.168649
-0.136303
0.165232
0.146488
-0.101167
0.139855
-0.255049
0.136535
0.179521
-0.164595
0.130314
0.008974
0.072410
-0.177612
0.215153
-0.112854
0.041943
-0.143498
0.075519
-0.031848
0.124029
-0.090520
0.063443
0.001417
0.146673
0.199436
0.086963
-0.150044
-0.020899
-0.188611
-0.106297
-0.120311
-0.104919
-0.066753
-0.020144
-0.017361
0.206375
-0.185356
-0.051356
0.007106
0.140315
0.156627
0.126468
-0.096001
-0.161712
-0.165241
0.123699
-0.097170
0.119702
0.090611
-0.094227
-0.201711
0.197516
0.131742
-0.099880
-0.046898
0.033338
-0.069649
0.212798
0.202619
-0.004018
-0.076692
-0.022961
0.128127
0.139857
0.175765
-0.081792
-0.179595
0.068406
-0.144001
-0.022700
-0.010937
0.049596
0.119037
0.189897
0.129215
0.181344
0.172088
-0.101068
-0.191449
-0.151768
-0.150452
-0.056839
-0.053467
-0.164147
0.122293
-0.027424
0.106181
-0.155665
-0.114703
0.176676
0.046742
-0.178263
-0.007331
0.174957
0.175730
0.046657
-0.061656
-0.021579
0.173181
-0.242065
0.140587
-0.161310
0.110618
-0.170242
-0.229636
0.009778
0.219054
-0.180439
0.140704
0.074649
-0.142483
0.213725
-0.025329
-0.027567
0.091028
-0.040245
0.181683
-0.204834
-0.047395
0.045604
-0.040139
-0.169873
-0.196561
-0.163667
0.197494
-0.130244
0.272693
-0.210816
-0.022280
-0.029477
-0.033352
0.158821
0.128416
-0.002583
-0.086883
0.186027
0.176212
-0.110122
-0.088591
0.096533
-0.142415
-0.022731
0.219750
-0.125384
0.166672
-0.031184
-0.199351
0.069199
0.027962
-0.103186
-0.173084
-0.117889
-0.101455
-0.062127
0.184328
-0.180934
0.103425
-0.218105
-0.174398
0.174488
0.128190
-0.175845
-0.084872
-0.133760
-0.192761
-0.138175
0.063979
0.058724
0.185573
0.144052
0.138612
0.107109
-0.156024
0.130761
-0.237622
0.056216
0.036949
-0.116517
-0.088450
-0.123210
0.102792
0.110209
0.062450
-0.045413
-0.116647
-0.011236
-0.185196
-0.115092
0.058799
-0.033342
-0.136010
0.182329
0.145452
0.158463
-0.123256
0.162114
-0.051736
0.196437
-0.146788
0.179606
0.158525
-0.070726
-0.192638
0.192228
0.156708
-0.018947
-0.070413
0.074357
-0.163959
0.091416
-0.077531
0.131341
0.052723
0.073008
-0.074001
0.155363
-0.123946
0.083679
0.025674
-0.102200
0.180161
0.001877
0.213150
-0.145212
-0.127799
-0.054593
0.110869
0.222219
0.173810
-0.074875
0.131919
0.124797
0.118510
0.234229
0.071561
-0.044106
0.137379
0.070203
0.288657
0.073619
-0.191995
0.228847
0.144096
-0.076763
0.337278
-0.150638
-0.104807
0.102261
-0.203328
-0.040798
0.124714
0.070266
-0.047489
-0.135487
-0.160858
-0.177311
-0.156572
-0.143259
-0.101772
-0.072170
0.212168
0.059438
-0.016790
-0.088048
-0.101709
0.152849
-0.104500
0.124333
-0.015312
0.198663
0.178510
-0.198958
-0.112061
-0.073229
-0.077195
-0.193854
0.178822
0.215043
0.125714
-0.159774
-0.192298
-0.011609
0.154932
-0.058020
-0.203169
-0.132214
-0.043875
0.102119
0.061806
-0.179305
-0.238415
-0.017358
-0.035233
0.156167
-0.129961
-0.076079
-0.060913
0.074898
0.120872
-0.163120
0.086511
-0.104494
0.193070
-0.127387
-0.171831
0.138563
-0.000304
-0.061978
-0.231658
-0.178978
0.056638
-0.040721
0.133146
0.044262
-0.065501
0.135330
0.081876
-0.150880
-0.191424
0.112097
-0.061339
0.065676
0.135178
0.154307
-0.121881
-0.018825
-0.081932
0.117117
0.157620
-0.200169
-0.190265
-0.196202
-0.032190
-0.109358
-0.066320
-0.151747
0.074332
-0.030515
0.057927
-0.170173
-0.063140
0.041727
-0.122862
-0.026501
-0.047630
0.184226
-0.147923
-0.154189
0.209056
-0.062189
0.099487
0.222649
-0.129352
0.107262
-0.170577
-0.134584
-0.213431
-0.132788
0.069538
-0.206108
-0.001235
-0.120636
-0.168380
-0.115063
-0.006178
-0.243183
-0.026252
-0.171986
-0.009155
0.108072
0.147342
0.207070
-0.111912
0.182965
-0.037245
-0.183399
-0.093878
0.122113
-0.047132
0.046477
-0.000729
-0.190333
0.170348
0.088988
0.094694
-0.185114
0.152762
-0.202737
-0.091293
-0.012849
0.194409
0.051043
-0.213107
0.131379
0.199410
-0.088487
0.005460
-0.199865
-0.215020
0.203176
-0.159679
-0.153087
-0.089918
-0.216770
0.095298
-0.223609
0.267971
-0.088285
0.212391
-0.180551
0.043658
0.049170
0.173616
-0.123475
-0.055360
0.102369
-0.006496
-0.210517
-0.066009
-0.024957
-0.000188
-0.069402
-0.036401
0.139713
0.028937
0.141445
0.032928
0.063408
-0.136800
0.121634
-0.076262
0.092346
0.078319
-0.134861
0.098797
-0.086847
-0.103115
0.165423
-0.039383
0.040950
-0.205763
-0.087656
0.036922
0.034880
0.061031
0.060394
0.157698
0.208479
0.040599
-0.051011
-0.146283
0.206546
0.159411
-0.125777
-0.028785
-0.186250
0.229007
-0.205392
-0.096105
0.021754
0.050951
0.079788
0.148710
0.204663
-0.094257
-0.051879
0.058764
0.209494
0.118360
0.002140
0.031714
0.049144
-0.190383
0.122108
-0.029650
-0.092915
-0.138445
-0.236257
-0.151105
0.032548
-0.001427
-0.073722
-0.179223
-0.204710
-0.236561
0.191374
-0.019352
-0.073026
0.213277
0.035146
0.056628
0.057615
0.086238
0.057697
-0.092352
0.200519
-0.064523
0.012562
-0.031708
0.139715
-0.125687
-0.176035
0.071332
0.278800
-0.196559
-0.161017
-0.185924
0.090964
0.196830
0.136286
0.055798
-0.078020
0.022820
-0.202114
-0.096003
-0.014808
-0.182354
-0.104979
-0.062335
0.050609
0.116410
0.239802
-0.072653
0.223580
-0.066886
0.190628
-0.312750
0.185447
0.153202
0.153367
0.015146
0.089563
0.175045
0.030709
-0.137564
-0.217587
-0.087587
-0.088376
0.072115
0.096724
-0.120058
-0.051815
-0.245975
-0.043771
-0.081494
0.121947
0.192423
0.183402
0.025858
0.128780
-0.048445
0.165688
0.099260
0.118943
-0.267358
-0.052270
-0.112140
0.133489
-0.141180
-0.014571
0.205820
-0.141675
0.092889
0.076984
-0.106680
-0.111320
-0.099259
-0.109274
0.212331
0.183799
0.014359
-0.015490
0.148105
-0.170822
-0.023243
-0.105803
-0.185246
-0.232441
0.173393
0.152314
0.141676
0.072849
0.051974
-0.105495
0.116437
-0.196133
-0.226252
-0.074105
-0.131006
-0.063727
-0.020565
0.120859
-0.148147
0.160061
0.205362
0.209259
-0.202293
-0.153809
0.090093
0.051421
-0.198178
-0.163146
0.062564
0.113845
-0.072132
0.058481
-0.127116
0.020262
-0.173943
0.191726
0.076911
0.177634
-0.138161
0.162398
-0.136841
0.141527
-0.113570
0.262752
-0.017224
-0.028498
-0.119777
-0.002393
-0.091842
-0.167028
-0.073592
0.086199
-0.096027
0.214258
0.183184
-0.107274
-0.141137
-0.102648
0.011004
-0.077693
0.042276
-0.070951
-0.127560
-0.201165
0.021144
0.174671
0.117571
0.137107
-0.104672
0.153986
0.227015
0.094713
0.210993
-0.083828
0.050127
-0.110831
0.083340
-0.174099
0.205454
0.100715
0.157135
0.062434
0.191982
0.163408
0.056582
-0.099921
0.111695
-0.170759
-0.188822
0.117642
-0.077711
-0.027756
0.030769
0.187631
-0.244979
-0.190223
-0.200162
0.019456
-0.076604
0.031796
0.235549
-0.085232
-0.196905
-0.023378
0.055100
-0.072562
0.109524
0.001273
-0.183036
0.080651
-0.096934
0.117548
-0.070855
-0.045997
-0.156596
0.183233
0.155573
-0.213159
0.007151
0.137557
0.109134
0.002176
0.002977
0.086321
-0.176202
0.157061
0.103719
-0.061546
-0.109185
-0.202469
-0.099583
-0.091211
0.105625
0.112629
0.164117
0.312979
0.193636
-0.285521
0.005628
-0.071247
0.275164
0.070636
-0.075706
0.016416
0.089879
0.028768
-0.107506
-0.140157
-0.074584
0.046904
-0.213771
0.137288
-0.031237
0.210789
-0.208430
0.018211
-0.055133
0.035379
0.071265
-0.161977
-0.033708
0.034366
0.038952
0.032791
-0.176844
0.005213
-0.012671
-0.008088
0.207915
-0.227815
0.018980
0.070951
-0.154081
-0.112341
-0.074321
-0.172847
0.121082
0.192650
0.023699
0.174493
-0.054030
0.116894
0.167753
0.113918
0.034440
0.179320
-0.114784
0.038354
0.173869
-0.142911
-0.110438
-0.017717
-0.270086
-0.020494
0.152006
-0.001924
-0.188811
-0.023751
0.055358
-0.085114
-0.094425
0.087125
0.157295
-0.105508
0.151613
-0.145574
-0.179271
0.119476
0.237573
-0.114006
-0.126531
0.181936
0.207087
0.027352
-0.101827
0.236377
-0.034359
0.117877
-0.137869
0.162894
0.206786
0.007899
-0.108943
-0.061969
0.091421
0.021661
0.157119
-0.011635
0.140866
-0.216639
0.103044
0.211659
-0.050232
0.159034
0.133513
0.002682
0.091811
0.067559
0.129901
0.190729
0.011342
0.001565
-0.256568
-0.161823
-0.074262
-0.021808
0.250018
0.104450
-0.008175
0.032474
0.144893
0.150458
0.114857
-0.155505
0.107907
0.116943
-0.033713
0.121479
-0.066648
-0.003864
0.017042
-0.144766
0.159695
0.156257
-0.120695
0.021058
0.254799
0.262935
-0.024426
-0.158731
-0.124143
0.147402
0.152704
0.138966
-0.039773
0.175863
-0.184371
-0.035092
-0.155578
0.094552
0.198280
-0.088113
-0.143090
0.040667
-0.088371
0.023327
-0.024234
0.064489
-0.047367
-0.136304
-0.059139
0.015917
-0.210072
-0.103572
-0.104749
-0.173921
0.131992
0.079652
0.017249
-0.068208
0.106024
-0.250224
-0.158921
0.268274
-0.275741
0.156020
0.103464
0.069921
-0.124165
0.241971
0.270517
-0.160799
0.208855
-0.008261
-0.211234
-0.191404
0.162825
0.170386
0.199757
-0.143477
-0.193319
-0.103657
-0.152336
0.008891
0.026970
-0.152677
0.126270
-0.177974
-0.161483
-0.241846
0.007555
-0.039913
-0.178576
0.030604
-0.197871
-0.102932
-0.203003
0.150354
-0.026253
0.049847
-0.290946
0.049796
0.190340
-0.056571
-0.149643
0.184817
-0.139676
-0.203961
0.064494
0.091217
0.148681
-0.154448
-0.125644
-0.196427
-0.104215
0.109654
0.175446
0.137612
-0.098180
-0.198164
0.051111
-0.015430
-0.254739
-0.084532
0.164544
0.000942
-0.041159
-0.146246
0.044205
-0.142381
0.029508
-0.227783
0.176663
-0.215979
-0.234012
-0.123947
-0.146004
-0.116882
0.153710
-0.054031
-0.029036
-0.197923
0.015452
-0.208344
-0.074707
-0.139222
0.025109
0.121169
0.073733
-0.173108
0.061161
0.165469
0.225154
0.067850
0.118891
0.006011
0.090622
-0.211086
-0.133529
-0.082952
0.002671
-0.045401
0.142971
-0.224346
-0.129030
0.199089
0.146133
0.117380
0.100025
-0.199052
0.140313
0.056598
-0.130287
0.035351
0.044907
-0.067848
0.159329
-0.164486
-0.138208
0.131588
-0.166604
-0.013456
-0.193954
-0.136644
0.035507
0.013284
0.103088
0.136783
0.026258
-0.140469
0.237571
0.161450
0.213692
-0.004712
-0.058547
0.108930
-0.105579
0.142465
0.079759
0.125503
-0.124573
-0.193124
0.032662
0.135907
0.028394
0.144831
-0.184515
0.160975
0.169292
0.173338
-0.132702
0.164877
0.227195
-0.157480
0.020658
-0.193883
0.187749
0.208049
0.111652
-0.043934
-0.106458
-0.083589
0.138224
-0.093809
0.086643
0.196227
0.159346
0.078644
-0.178567
-0.113379
0.086199
-0.182896
0.171519
-0.070318
0.173523
-0.117909
0.054379
-0.153911
0.021033
0.000823
-0.189372
-0.176231
0.216992
0.193937
0.124673
0.071605
0.070838
0.183495
0.195775
0.006168
-0.154695
-0.190203
0.102595
-0.081874
0.054580
0.114998
0.184774
0.061377
0.039960
0.132896
0.108369
-0.174930
0.003655
-0.123755
-0.259627
0.113887
-0.154212
0.102553
-0.138672
0.031837
-0.017266
0.258815
-0.176456
0.118255
0.161436
0.162244
-0.043262
-0.063665
-0.125765
-0.114466
0.160418
-0.158340
-0.128933
0.099937
-0.209716
-0.097647
0.139632
-0.147457
0.188715
0.187094
-0.105639
-0.062150
-0.182012
-0.032018
0.105069
0.116685
-0.173608
0.109197
0.058962
-0.049705
-0.173572
-0.172784
0.074702
0.049088
-0.189037
-0.030634
-0.015278
-0.202149
-0.073110
0.281199
0.270753
-0.006218
-0.047162
0.127792
0.000814
-0.160054
0.181856
-0.068313
0.231077
-0.165612
0.004446
-0.034906
0.211764
0.148929
0.199717
0.235069
0.162842
0.162765
-0.259224
0.016430
-0.029869
-0.002700
-0.277003
0.202898
-0.169614
0.027568
0.143638
0.049994
0.179421
-0.102177
-0.097976
0.021936
-0.150054
0.200471
-0.099838
0.089935
-0.104781
-0.139345
0.203002
0.113396
-0.088628
-0.073188
0.195652
0.142018
0.126874
0.093517
0.045789
-0.177628
-0.201920
-0.191979
0.106185
-0.191426
0.023368
-0.148342
-0.055210
-0.113731
-0.050117
0.202371
